# XGBoost Model Parameters
import numpy as np
import json

classes_ = np.array([0, 1])
booster_config = {"learner": {"generic_param": {"device": "cpu", "fail_on_invalid_gpu_id": "0", "n_jobs": "0", "nthread": "0", "random_state": "42", "seed": "42", "seed_per_iteration": "0", "validate_parameters": "1"}, "gradient_booster": {"gbtree_model_param": {"num_parallel_tree": "1", "num_trees": "100"}, "gbtree_train_param": {"process_type": "default", "tree_method": "auto", "updater": "grow_quantile_histmaker", "updater_seq": "grow_quantile_histmaker"}, "name": "gbtree", "specified_updater": false, "tree_train_param": {"alpha": "0", "cache_opt": "1", "colsample_bylevel": "1", "colsample_bynode": "1", "colsample_bytree": "1", "eta": "0.300000012", "gamma": "0", "grow_policy": "depthwise", "interaction_constraints": "", "lambda": "1", "learning_rate": "0.300000012", "max_bin": "256", "max_cat_threshold": "64", "max_cat_to_onehot": "4", "max_delta_step": "0", "max_depth": "5", "max_leaves": "0", "min_child_weight": "1", "min_split_loss": "0", "monotone_constraints": "()", "refresh_leaf": "1", "reg_alpha": "0", "reg_lambda": "1", "sampling_method": "uniform", "sketch_ratio": "2", "sparse_threshold": "0.20000000000000001", "subsample": "1"}, "updater": [{"hist_train_param": {"debug_synchronize": "0", "max_cached_hist_node": "65536"}, "name": "grow_quantile_histmaker"}]}, "learner_model_param": {"base_score": "3.762503E-1", "boost_from_average": "1", "num_class": "0", "num_feature": "30", "num_target": "1"}, "learner_train_param": {"booster": "gbtree", "disable_default_eval_metric": "0", "multi_strategy": "one_output_per_tree", "objective": "binary:logistic"}, "metrics": [{"name": "logloss"}], "objective": {"name": "binary:logistic", "reg_loss_param": {"scale_pos_weight": "1"}}}, "version": [2, 0, 3]}
booster_dump = ['  { "nodeid": 0, "depth": 0, "split": "f22", "split_condition": 0.197417215, "yes": 1, "no": 2, "missing": 2 , "children": [\n    { "nodeid": 1, "depth": 1, "split": "f27", "split_condition": 0.450938046, "yes": 3, "no": 4, "missing": 4 , "children": [\n      { "nodeid": 3, "depth": 2, "split": "f3", "split_condition": 0.108942546, "yes": 7, "no": 8, "missing": 8 , "children": [\n        { "nodeid": 7, "depth": 3, "split": "f27", "split_condition": 0.254743189, "yes": 13, "no": 14, "missing": 14 , "children": [\n          { "nodeid": 13, "depth": 4, "split": "f10", "split_condition": 0.529948115, "yes": 17, "no": 18, "missing": 18 , "children": [\n            { "nodeid": 17, "leaf": -0.463196307 }, \n            { "nodeid": 18, "leaf": -0.121639729 }\n          ]}, \n          { "nodeid": 14, "depth": 4, "split": "f15", "split_condition": 0.103754722, "yes": 19, "no": 20, "missing": 20 , "children": [\n            { "nodeid": 19, "leaf": 0.103214785 }, \n            { "nodeid": 20, "leaf": -0.298972696 }\n          ]}\n        ]}, \n        { "nodeid": 8, "leaf": 0.155558228 }\n      ]}, \n      { "nodeid": 4, "depth": 2, "split": "f21", "split_condition": 0.0502434634, "yes": 9, "no": 10, "missing": 10 , "children": [\n        { "nodeid": 9, "depth": 3, "split": "f2", "split_condition": -0.216520086, "yes": 15, "no": 16, "missing": 16 , "children": [\n          { "nodeid": 15, "leaf": -0.259670407 }, \n          { "nodeid": 16, "leaf": 0.0163909458 }\n        ]}, \n        { "nodeid": 10, "leaf": 0.611290455 }\n      ]}\n    ]}, \n    { "nodeid": 2, "depth": 1, "split": "f7", "split_condition": -0.0139900381, "yes": 5, "no": 6, "missing": 6 , "children": [\n      { "nodeid": 5, "depth": 2, "split": "f21", "split_condition": 0.368051559, "yes": 11, "no": 12, "missing": 12 , "children": [\n        { "nodeid": 11, "leaf": -0.156657949 }, \n        { "nodeid": 12, "leaf": 0.466235638 }\n      ]}, \n      { "nodeid": 6, "leaf": 0.772945106 }\n    ]}\n  ]}', '  { "nodeid": 0, "depth": 0, "split": "f20", "split_condition": 0.095694311, "yes": 1, "no": 2, "missing": 2 , "children": [\n    { "nodeid": 1, "depth": 1, "split": "f27", "split_condition": 0.394026577, "yes": 3, "no": 4, "missing": 4 , "children": [\n      { "nodeid": 3, "depth": 2, "split": "f13", "split_condition": 0.145473927, "yes": 7, "no": 8, "missing": 8 , "children": [\n        { "nodeid": 7, "depth": 3, "split": "f27", "split_condition": 0.310157001, "yes": 13, "no": 14, "missing": 14 , "children": [\n          { "nodeid": 13, "depth": 4, "split": "f14", "split_condition": -1.26434851, "yes": 17, "no": 18, "missing": 18 , "children": [\n            { "nodeid": 17, "leaf": -0.0888882205 }, \n            { "nodeid": 18, "leaf": -0.401198417 }\n          ]}, \n          { "nodeid": 14, "leaf": -0.0804445297 }\n        ]}, \n        { "nodeid": 8, "leaf": 0.0377306715 }\n      ]}, \n      { "nodeid": 4, "depth": 2, "split": "f21", "split_condition": -0.11277727, "yes": 9, "no": 10, "missing": 10 , "children": [\n        { "nodeid": 9, "leaf": -0.210725442 }, \n        { "nodeid": 10, "depth": 3, "split": "f14", "split_condition": -0.5022856, "yes": 15, "no": 16, "missing": 16 , "children": [\n          { "nodeid": 15, "leaf": 0.0863240287 }, \n          { "nodeid": 16, "leaf": 0.456567287 }\n        ]}\n      ]}\n    ]}, \n    { "nodeid": 2, "depth": 1, "split": "f1", "split_condition": -1.04240775, "yes": 5, "no": 6, "missing": 6 , "children": [\n      { "nodeid": 5, "leaf": -0.139039099 }, \n      { "nodeid": 6, "depth": 2, "split": "f26", "split_condition": -0.358614177, "yes": 11, "no": 12, "missing": 12 , "children": [\n        { "nodeid": 11, "leaf": 0.0631512105 }, \n        { "nodeid": 12, "leaf": 0.52530688 }\n      ]}\n    ]}\n  ]}', '  { "nodeid": 0, "depth": 0, "split": "f22", "split_condition": 0.156407729, "yes": 1, "no": 2, "missing": 2 , "children": [\n    { "nodeid": 1, "depth": 1, "split": "f7", "split_condition": 0.0707678273, "yes": 3, "no": 4, "missing": 4 , "children": [\n      { "nodeid": 3, "depth": 2, "split": "f13", "split_condition": 0.084850274, "yes": 7, "no": 8, "missing": 8 , "children": [\n        { "nodeid": 7, "depth": 3, "split": "f21", "split_condition": 1.15845513, "yes": 13, "no": 14, "missing": 14 , "children": [\n          { "nodeid": 13, "depth": 4, "split": "f19", "split_condition": -0.921621621, "yes": 19, "no": 20, "missing": 20 , "children": [\n            { "nodeid": 19, "leaf": -0.106147185 }, \n            { "nodeid": 20, "leaf": -0.371413946 }\n          ]}, \n          { "nodeid": 14, "depth": 4, "split": "f1", "split_condition": 1.89510739, "yes": 21, "no": 22, "missing": 22 , "children": [\n            { "nodeid": 21, "leaf": 0.0514654182 }, \n            { "nodeid": 22, "leaf": -0.244480103 }\n          ]}\n        ]}, \n        { "nodeid": 8, "leaf": 0.175273091 }\n      ]}, \n      { "nodeid": 4, "depth": 2, "split": "f21", "split_condition": -0.076550439, "yes": 9, "no": 10, "missing": 10 , "children": [\n        { "nodeid": 9, "depth": 3, "split": "f20", "split_condition": -0.0942703038, "yes": 15, "no": 16, "missing": 16 , "children": [\n          { "nodeid": 15, "leaf": -0.303198129 }, \n          { "nodeid": 16, "leaf": 0.0598927625 }\n        ]}, \n        { "nodeid": 10, "leaf": 0.36272037 }\n      ]}\n    ]}, \n    { "nodeid": 2, "depth": 1, "split": "f1", "split_condition": -1.0470742, "yes": 5, "no": 6, "missing": 6 , "children": [\n      { "nodeid": 5, "leaf": -0.0838572383 }, \n      { "nodeid": 6, "depth": 2, "split": "f23", "split_condition": -0.121830001, "yes": 11, "no": 12, "missing": 12 , "children": [\n        { "nodeid": 11, "leaf": 0.0288858321 }, \n        { "nodeid": 12, "depth": 3, "split": "f29", "split_condition": -1.06088686, "yes": 17, "no": 18, "missing": 18 , "children": [\n          { "nodeid": 17, "leaf": 0.0695900619 }, \n          { "nodeid": 18, "leaf": 0.431433946 }\n        ]}\n      ]}\n    ]}\n  ]}', '  { "nodeid": 0, "depth": 0, "split": "f7", "split_condition": 0.0707678273, "yes": 1, "no": 2, "missing": 2 , "children": [\n    { "nodeid": 1, "depth": 1, "split": "f20", "split_condition": 0.095694311, "yes": 3, "no": 4, "missing": 4 , "children": [\n      { "nodeid": 3, "depth": 2, "split": "f10", "split_condition": 0.529948115, "yes": 7, "no": 8, "missing": 8 , "children": [\n        { "nodeid": 7, "depth": 3, "split": "f14", "split_condition": -1.24330676, "yes": 13, "no": 14, "missing": 14 , "children": [\n          { "nodeid": 13, "leaf": -0.0507832654 }, \n          { "nodeid": 14, "depth": 4, "split": "f21", "split_condition": 1.15845513, "yes": 19, "no": 20, "missing": 20 , "children": [\n            { "nodeid": 19, "leaf": -0.345374286 }, \n            { "nodeid": 20, "leaf": -0.118791431 }\n          ]}\n        ]}, \n        { "nodeid": 8, "leaf": 0.0469042771 }\n      ]}, \n      { "nodeid": 4, "depth": 2, "split": "f1", "split_condition": -0.260781407, "yes": 9, "no": 10, "missing": 10 , "children": [\n        { "nodeid": 9, "leaf": -0.245266899 }, \n        { "nodeid": 10, "leaf": 0.289166808 }\n      ]}\n    ]}, \n    { "nodeid": 2, "depth": 1, "split": "f26", "split_condition": -0.237292275, "yes": 5, "no": 6, "missing": 6 , "children": [\n      { "nodeid": 5, "leaf": -0.238722071 }, \n      { "nodeid": 6, "depth": 2, "split": "f23", "split_condition": -0.308350384, "yes": 11, "no": 12, "missing": 12 , "children": [\n        { "nodeid": 11, "depth": 3, "split": "f4", "split_condition": 0.867992997, "yes": 15, "no": 16, "missing": 16 , "children": [\n          { "nodeid": 15, "leaf": -0.228377834 }, \n          { "nodeid": 16, "leaf": 0.183196828 }\n        ]}, \n        { "nodeid": 12, "depth": 3, "split": "f1", "split_condition": -0.951412439, "yes": 17, "no": 18, "missing": 18 , "children": [\n          { "nodeid": 17, "leaf": 0.0221330971 }, \n          { "nodeid": 18, "leaf": 0.390495628 }\n        ]}\n      ]}\n    ]}\n  ]}', '  { "nodeid": 0, "depth": 0, "split": "f27", "split_condition": 0.450938046, "yes": 1, "no": 2, "missing": 2 , "children": [\n    { "nodeid": 1, "depth": 1, "split": "f23", "split_condition": 0.0657218173, "yes": 3, "no": 4, "missing": 4 , "children": [\n      { "nodeid": 3, "depth": 2, "split": "f1", "split_condition": 0.45084855, "yes": 7, "no": 8, "missing": 8 , "children": [\n        { "nodeid": 7, "depth": 3, "split": "f13", "split_condition": -0.127229035, "yes": 13, "no": 14, "missing": 14 , "children": [\n          { "nodeid": 13, "leaf": -0.332928777 }, \n          { "nodeid": 14, "leaf": -0.0684626177 }\n        ]}, \n        { "nodeid": 8, "depth": 3, "split": "f20", "split_condition": -0.394536972, "yes": 15, "no": 16, "missing": 16 , "children": [\n          { "nodeid": 15, "depth": 4, "split": "f29", "split_condition": 0.377234548, "yes": 17, "no": 18, "missing": 18 , "children": [\n            { "nodeid": 17, "leaf": -0.284917563 }, \n            { "nodeid": 18, "leaf": -0.0787643194 }\n          ]}, \n          { "nodeid": 16, "depth": 4, "split": "f15", "split_condition": -0.753972471, "yes": 19, "no": 20, "missing": 20 , "children": [\n            { "nodeid": 19, "leaf": 0.318519592 }, \n            { "nodeid": 20, "leaf": -0.0259921644 }\n          ]}\n        ]}\n      ]}, \n      { "nodeid": 4, "depth": 2, "split": "f1", "split_condition": 0.0145377116, "yes": 9, "no": 10, "missing": 10 , "children": [\n        { "nodeid": 9, "leaf": -0.0561626777 }, \n        { "nodeid": 10, "leaf": 0.29551205 }\n      ]}\n    ]}, \n    { "nodeid": 2, "depth": 1, "split": "f23", "split_condition": -0.308350384, "yes": 5, "no": 6, "missing": 6 , "children": [\n      { "nodeid": 5, "leaf": -0.00143373315 }, \n      { "nodeid": 6, "depth": 2, "split": "f6", "split_condition": -0.0414699018, "yes": 11, "no": 12, "missing": 12 , "children": [\n        { "nodeid": 11, "leaf": 0.0848436356 }, \n        { "nodeid": 12, "leaf": 0.356949717 }\n      ]}\n    ]}\n  ]}', '  { "nodeid": 0, "depth": 0, "split": "f7", "split_condition": 0.0707678273, "yes": 1, "no": 2, "missing": 2 , "children": [\n    { "nodeid": 1, "depth": 1, "split": "f3", "split_condition": 0.108942546, "yes": 3, "no": 4, "missing": 4 , "children": [\n      { "nodeid": 3, "depth": 2, "split": "f21", "split_condition": 0.652926147, "yes": 7, "no": 8, "missing": 8 , "children": [\n        { "nodeid": 7, "depth": 3, "split": "f11", "split_condition": 1.49557865, "yes": 15, "no": 16, "missing": 16 , "children": [\n          { "nodeid": 15, "leaf": -0.315230101 }, \n          { "nodeid": 16, "leaf": -0.0395652205 }\n        ]}, \n        { "nodeid": 8, "depth": 3, "split": "f26", "split_condition": -0.317544103, "yes": 17, "no": 18, "missing": 18 , "children": [\n          { "nodeid": 17, "leaf": -0.252948821 }, \n          { "nodeid": 18, "leaf": 0.130101427 }\n        ]}\n      ]}, \n      { "nodeid": 4, "depth": 2, "split": "f1", "split_condition": 0.0145377116, "yes": 9, "no": 10, "missing": 10 , "children": [\n        { "nodeid": 9, "leaf": -0.136132523 }, \n        { "nodeid": 10, "leaf": 0.265034378 }\n      ]}\n    ]}, \n    { "nodeid": 2, "depth": 1, "split": "f23", "split_condition": -0.138848916, "yes": 5, "no": 6, "missing": 6 , "children": [\n      { "nodeid": 5, "depth": 2, "split": "f21", "split_condition": -0.076550439, "yes": 11, "no": 12, "missing": 12 , "children": [\n        { "nodeid": 11, "leaf": -0.261208951 }, \n        { "nodeid": 12, "leaf": 0.243176073 }\n      ]}, \n      { "nodeid": 6, "depth": 2, "split": "f13", "split_condition": -0.272891313, "yes": 13, "no": 14, "missing": 14 , "children": [\n        { "nodeid": 13, "leaf": 0.0282955132 }, \n        { "nodeid": 14, "leaf": 0.333047807 }\n      ]}\n    ]}\n  ]}', '  { "nodeid": 0, "depth": 0, "split": "f27", "split_condition": 0.450938046, "yes": 1, "no": 2, "missing": 2 , "children": [\n    { "nodeid": 1, "depth": 1, "split": "f13", "split_condition": -0.124953061, "yes": 3, "no": 4, "missing": 4 , "children": [\n      { "nodeid": 3, "depth": 2, "split": "f21", "split_condition": 0.699033022, "yes": 7, "no": 8, "missing": 8 , "children": [\n        { "nodeid": 7, "depth": 3, "split": "f14", "split_condition": -1.21069193, "yes": 13, "no": 14, "missing": 14 , "children": [\n          { "nodeid": 13, "leaf": -0.0549875684 }, \n          { "nodeid": 14, "leaf": -0.311175227 }\n        ]}, \n        { "nodeid": 8, "depth": 3, "split": "f1", "split_condition": 0.770498693, "yes": 15, "no": 16, "missing": 16 , "children": [\n          { "nodeid": 15, "leaf": 0.177861616 }, \n          { "nodeid": 16, "leaf": -0.20760484 }\n        ]}\n      ]}, \n      { "nodeid": 4, "depth": 2, "split": "f24", "split_condition": -1.16318905, "yes": 9, "no": 10, "missing": 10 , "children": [\n        { "nodeid": 9, "leaf": -0.110938609 }, \n        { "nodeid": 10, "depth": 3, "split": "f19", "split_condition": -0.271209627, "yes": 17, "no": 18, "missing": 18 , "children": [\n          { "nodeid": 17, "leaf": 0.264661044 }, \n          { "nodeid": 18, "leaf": -0.0194196012 }\n        ]}\n      ]}\n    ]}, \n    { "nodeid": 2, "depth": 1, "split": "f23", "split_condition": -0.308350384, "yes": 5, "no": 6, "missing": 6 , "children": [\n      { "nodeid": 5, "leaf": 0.00423730491 }, \n      { "nodeid": 6, "depth": 2, "split": "f6", "split_condition": -0.0414699018, "yes": 11, "no": 12, "missing": 12 , "children": [\n        { "nodeid": 11, "leaf": 0.0595838502 }, \n        { "nodeid": 12, "leaf": 0.315481573 }\n      ]}\n    ]}\n  ]}', '  { "nodeid": 0, "depth": 0, "split": "f22", "split_condition": 0.197417215, "yes": 1, "no": 2, "missing": 2 , "children": [\n    { "nodeid": 1, "depth": 1, "split": "f27", "split_condition": -0.0642606318, "yes": 3, "no": 4, "missing": 4 , "children": [\n      { "nodeid": 3, "depth": 2, "split": "f13", "split_condition": 0.084850274, "yes": 7, "no": 8, "missing": 8 , "children": [\n        { "nodeid": 7, "depth": 3, "split": "f21", "split_condition": 1.15845513, "yes": 11, "no": 12, "missing": 12 , "children": [\n          { "nodeid": 11, "leaf": -0.292715549 }, \n          { "nodeid": 12, "leaf": -0.0920739248 }\n        ]}, \n        { "nodeid": 8, "leaf": 0.0561704971 }\n      ]}, \n      { "nodeid": 4, "depth": 2, "split": "f21", "split_condition": 0.0502434634, "yes": 9, "no": 10, "missing": 10 , "children": [\n        { "nodeid": 9, "depth": 3, "split": "f13", "split_condition": -0.244958907, "yes": 13, "no": 14, "missing": 14 , "children": [\n          { "nodeid": 13, "leaf": -0.248550951 }, \n          { "nodeid": 14, "leaf": 0.0505653918 }\n        ]}, \n        { "nodeid": 10, "depth": 3, "split": "f23", "split_condition": -0.328635544, "yes": 15, "no": 16, "missing": 16 , "children": [\n          { "nodeid": 15, "leaf": -0.00320690847 }, \n          { "nodeid": 16, "leaf": 0.244071439 }\n        ]}\n      ]}\n    ]}, \n    { "nodeid": 2, "depth": 1, "split": "f25", "split_condition": -0.525384843, "yes": 5, "no": 6, "missing": 6 , "children": [\n      { "nodeid": 5, "leaf": -0.025546914 }, \n      { "nodeid": 6, "leaf": 0.297033012 }\n    ]}\n  ]}', '  { "nodeid": 0, "depth": 0, "split": "f27", "split_condition": 0.450938046, "yes": 1, "no": 2, "missing": 2 , "children": [\n    { "nodeid": 1, "depth": 1, "split": "f3", "split_condition": 0.108942546, "yes": 3, "no": 4, "missing": 4 , "children": [\n      { "nodeid": 3, "depth": 2, "split": "f21", "split_condition": 0.652926147, "yes": 7, "no": 8, "missing": 8 , "children": [\n        { "nodeid": 7, "depth": 3, "split": "f13", "split_condition": -0.127229035, "yes": 13, "no": 14, "missing": 14 , "children": [\n          { "nodeid": 13, "leaf": -0.284488916 }, \n          { "nodeid": 14, "leaf": -0.0732192248 }\n        ]}, \n        { "nodeid": 8, "depth": 3, "split": "f27", "split_condition": -0.360799402, "yes": 15, "no": 16, "missing": 16 , "children": [\n          { "nodeid": 15, "leaf": -0.210581064 }, \n          { "nodeid": 16, "depth": 4, "split": "f17", "split_condition": -0.0112406304, "yes": 17, "no": 18, "missing": 18 , "children": [\n            { "nodeid": 17, "leaf": 0.275567174 }, \n            { "nodeid": 18, "leaf": -0.098480463 }\n          ]}\n        ]}\n      ]}, \n      { "nodeid": 4, "depth": 2, "split": "f1", "split_condition": -0.260781407, "yes": 9, "no": 10, "missing": 10 , "children": [\n        { "nodeid": 9, "leaf": -0.161223456 }, \n        { "nodeid": 10, "leaf": 0.207647666 }\n      ]}\n    ]}, \n    { "nodeid": 2, "depth": 1, "split": "f20", "split_condition": -0.0084798336, "yes": 5, "no": 6, "missing": 6 , "children": [\n      { "nodeid": 5, "depth": 2, "split": "f21", "split_condition": 0.081530273, "yes": 11, "no": 12, "missing": 12 , "children": [\n        { "nodeid": 11, "leaf": -0.117258072 }, \n        { "nodeid": 12, "leaf": 0.191949725 }\n      ]}, \n      { "nodeid": 6, "leaf": 0.285582453 }\n    ]}\n  ]}', '  { "nodeid": 0, "depth": 0, "split": "f7", "split_condition": 0.0707678273, "yes": 1, "no": 2, "missing": 2 , "children": [\n    { "nodeid": 1, "depth": 1, "split": "f15", "split_condition": -0.755108535, "yes": 3, "no": 4, "missing": 4 , "children": [\n      { "nodeid": 3, "depth": 2, "split": "f16", "split_condition": -0.617066503, "yes": 7, "no": 8, "missing": 8 , "children": [\n        { "nodeid": 7, "leaf": -0.186514512 }, \n        { "nodeid": 8, "depth": 3, "split": "f25", "split_condition": -0.703611076, "yes": 13, "no": 14, "missing": 14 , "children": [\n          { "nodeid": 13, "leaf": 0.0452377424 }, \n          { "nodeid": 14, "leaf": 0.257214576 }\n        ]}\n      ]}, \n      { "nodeid": 4, "depth": 2, "split": "f23", "split_condition": 0.0657218173, "yes": 9, "no": 10, "missing": 10 , "children": [\n        { "nodeid": 9, "leaf": -0.271449536 }, \n        { "nodeid": 10, "leaf": -0.0220916215 }\n      ]}\n    ]}, \n    { "nodeid": 2, "depth": 1, "split": "f21", "split_condition": -0.871894002, "yes": 5, "no": 6, "missing": 6 , "children": [\n      { "nodeid": 5, "leaf": -0.093848072 }, \n      { "nodeid": 6, "depth": 2, "split": "f22", "split_condition": -0.174597412, "yes": 11, "no": 12, "missing": 12 , "children": [\n        { "nodeid": 11, "leaf": 0.0106337769 }, \n        { "nodeid": 12, "leaf": 0.278722346 }\n      ]}\n    ]}\n  ]}', '  { "nodeid": 0, "depth": 0, "split": "f27", "split_condition": 0.531812251, "yes": 1, "no": 2, "missing": 2 , "children": [\n    { "nodeid": 1, "depth": 1, "split": "f1", "split_condition": 0.45084855, "yes": 3, "no": 4, "missing": 4 , "children": [\n      { "nodeid": 3, "depth": 2, "split": "f10", "split_condition": 0.456465334, "yes": 7, "no": 8, "missing": 8 , "children": [\n        { "nodeid": 7, "depth": 3, "split": "f23", "split_condition": 0.13139075, "yes": 11, "no": 12, "missing": 12 , "children": [\n          { "nodeid": 11, "depth": 4, "split": "f24", "split_condition": 0.802245438, "yes": 15, "no": 16, "missing": 16 , "children": [\n            { "nodeid": 15, "leaf": -0.273904055 }, \n            { "nodeid": 16, "leaf": -0.0671018213 }\n          ]}, \n          { "nodeid": 12, "leaf": -0.0183175094 }\n        ]}, \n        { "nodeid": 8, "leaf": 0.0760093108 }\n      ]}, \n      { "nodeid": 4, "depth": 2, "split": "f20", "split_condition": -0.394536972, "yes": 9, "no": 10, "missing": 10 , "children": [\n        { "nodeid": 9, "leaf": -0.167348266 }, \n        { "nodeid": 10, "depth": 3, "split": "f4", "split_condition": -0.43115738, "yes": 13, "no": 14, "missing": 14 , "children": [\n          { "nodeid": 13, "leaf": 0.0592913069 }, \n          { "nodeid": 14, "leaf": 0.243983105 }\n        ]}\n      ]}\n    ]}, \n    { "nodeid": 2, "depth": 1, "split": "f1", "split_condition": -0.757755756, "yes": 5, "no": 6, "missing": 6 , "children": [\n      { "nodeid": 5, "leaf": 0.0370127037 }, \n      { "nodeid": 6, "leaf": 0.257099539 }\n    ]}\n  ]}', '  { "nodeid": 0, "depth": 0, "split": "f22", "split_condition": 0.367313653, "yes": 1, "no": 2, "missing": 2 , "children": [\n    { "nodeid": 1, "depth": 1, "split": "f24", "split_condition": 0.239474639, "yes": 3, "no": 4, "missing": 4 , "children": [\n      { "nodeid": 3, "depth": 2, "split": "f15", "split_condition": -0.81134367, "yes": 5, "no": 6, "missing": 6 , "children": [\n        { "nodeid": 5, "depth": 3, "split": "f17", "split_condition": -0.765735269, "yes": 9, "no": 10, "missing": 10 , "children": [\n          { "nodeid": 9, "leaf": -0.122881047 }, \n          { "nodeid": 10, "leaf": 0.133662418 }\n        ]}, \n        { "nodeid": 6, "depth": 3, "split": "f3", "split_condition": 0.108942546, "yes": 11, "no": 12, "missing": 12 , "children": [\n          { "nodeid": 11, "leaf": -0.262721241 }, \n          { "nodeid": 12, "leaf": -0.036294274 }\n        ]}\n      ]}, \n      { "nodeid": 4, "depth": 2, "split": "f22", "split_condition": -0.606368721, "yes": 7, "no": 8, "missing": 8 , "children": [\n        { "nodeid": 7, "leaf": -0.16387935 }, \n        { "nodeid": 8, "depth": 3, "split": "f21", "split_condition": 0.219850898, "yes": 13, "no": 14, "missing": 14 , "children": [\n          { "nodeid": 13, "leaf": 0.00589821441 }, \n          { "nodeid": 14, "leaf": 0.238529995 }\n        ]}\n      ]}\n    ]}, \n    { "nodeid": 2, "leaf": 0.240312353 }\n  ]}', '  { "nodeid": 0, "depth": 0, "split": "f26", "split_condition": -0.317544103, "yes": 1, "no": 2, "missing": 2 , "children": [\n    { "nodeid": 1, "depth": 1, "split": "f13", "split_condition": -0.024603337, "yes": 3, "no": 4, "missing": 4 , "children": [\n      { "nodeid": 3, "leaf": -0.248406008 }, \n      { "nodeid": 4, "leaf": 0.0309589244 }\n    ]}, \n    { "nodeid": 2, "depth": 1, "split": "f21", "split_condition": -0.0534970015, "yes": 5, "no": 6, "missing": 6 , "children": [\n      { "nodeid": 5, "depth": 2, "split": "f23", "split_condition": -0.138848916, "yes": 7, "no": 8, "missing": 8 , "children": [\n        { "nodeid": 7, "leaf": -0.205502659 }, \n        { "nodeid": 8, "leaf": 0.120965645 }\n      ]}, \n      { "nodeid": 6, "depth": 2, "split": "f13", "split_condition": -0.44793433, "yes": 9, "no": 10, "missing": 10 , "children": [\n        { "nodeid": 9, "leaf": 0.0296565834 }, \n        { "nodeid": 10, "depth": 3, "split": "f4", "split_condition": -0.5207057, "yes": 11, "no": 12, "missing": 12 , "children": [\n          { "nodeid": 11, "leaf": 0.0757324547 }, \n          { "nodeid": 12, "leaf": 0.255098015 }\n        ]}\n      ]}\n    ]}\n  ]}', '  { "nodeid": 0, "depth": 0, "split": "f26", "split_condition": -0.317544103, "yes": 1, "no": 2, "missing": 2 , "children": [\n    { "nodeid": 1, "depth": 1, "split": "f13", "split_condition": -0.024603337, "yes": 3, "no": 4, "missing": 4 , "children": [\n      { "nodeid": 3, "leaf": -0.23435241 }, \n      { "nodeid": 4, "leaf": 0.0253242087 }\n    ]}, \n    { "nodeid": 2, "depth": 1, "split": "f23", "split_condition": 0.13139075, "yes": 5, "no": 6, "missing": 6 , "children": [\n      { "nodeid": 5, "depth": 2, "split": "f28", "split_condition": -0.134400323, "yes": 7, "no": 8, "missing": 8 , "children": [\n        { "nodeid": 7, "leaf": -0.162822232 }, \n        { "nodeid": 8, "depth": 3, "split": "f24", "split_condition": 0.256528288, "yes": 9, "no": 10, "missing": 10 , "children": [\n          { "nodeid": 9, "leaf": -0.059390489 }, \n          { "nodeid": 10, "leaf": 0.178355187 }\n        ]}\n      ]}, \n      { "nodeid": 6, "leaf": 0.236249179 }\n    ]}\n  ]}', '  { "nodeid": 0, "depth": 0, "split": "f22", "split_condition": 0.367313653, "yes": 1, "no": 2, "missing": 2 , "children": [\n    { "nodeid": 1, "depth": 1, "split": "f21", "split_condition": -0.633126259, "yes": 3, "no": 4, "missing": 4 , "children": [\n      { "nodeid": 3, "leaf": -0.215429693 }, \n      { "nodeid": 4, "depth": 2, "split": "f4", "split_condition": -0.393379152, "yes": 5, "no": 6, "missing": 6 , "children": [\n        { "nodeid": 5, "depth": 3, "split": "f9", "split_condition": -0.975854814, "yes": 7, "no": 8, "missing": 8 , "children": [\n          { "nodeid": 7, "leaf": 0.0256919246 }, \n          { "nodeid": 8, "leaf": -0.202743873 }\n        ]}, \n        { "nodeid": 6, "depth": 3, "split": "f23", "split_condition": -0.579277694, "yes": 9, "no": 10, "missing": 10 , "children": [\n          { "nodeid": 9, "leaf": -0.0775865391 }, \n          { "nodeid": 10, "depth": 4, "split": "f19", "split_condition": -0.438567102, "yes": 11, "no": 12, "missing": 12 , "children": [\n            { "nodeid": 11, "leaf": 0.0393230915 }, \n            { "nodeid": 12, "leaf": 0.199098915 }\n          ]}\n        ]}\n      ]}\n    ]}, \n    { "nodeid": 2, "leaf": 0.189894825 }\n  ]}', '  { "nodeid": 0, "depth": 0, "split": "f26", "split_condition": -0.317544103, "yes": 1, "no": 2, "missing": 2 , "children": [\n    { "nodeid": 1, "depth": 1, "split": "f25", "split_condition": -0.984475434, "yes": 3, "no": 4, "missing": 4 , "children": [\n      { "nodeid": 3, "leaf": 0.021912355 }, \n      { "nodeid": 4, "leaf": -0.205265462 }\n    ]}, \n    { "nodeid": 2, "depth": 1, "split": "f21", "split_condition": -0.0534970015, "yes": 5, "no": 6, "missing": 6 , "children": [\n      { "nodeid": 5, "depth": 2, "split": "f23", "split_condition": -0.138848916, "yes": 7, "no": 8, "missing": 8 , "children": [\n        { "nodeid": 7, "leaf": -0.175288498 }, \n        { "nodeid": 8, "leaf": 0.0827909335 }\n      ]}, \n      { "nodeid": 6, "depth": 2, "split": "f23", "split_condition": -0.328635544, "yes": 9, "no": 10, "missing": 10 , "children": [\n        { "nodeid": 9, "leaf": 0.0296701025 }, \n        { "nodeid": 10, "leaf": 0.200528845 }\n      ]}\n    ]}\n  ]}', '  { "nodeid": 0, "depth": 0, "split": "f7", "split_condition": 0.17318359, "yes": 1, "no": 2, "missing": 2 , "children": [\n    { "nodeid": 1, "depth": 1, "split": "f15", "split_condition": -0.755108535, "yes": 3, "no": 4, "missing": 4 , "children": [\n      { "nodeid": 3, "depth": 2, "split": "f17", "split_condition": -0.666091025, "yes": 7, "no": 8, "missing": 8 , "children": [\n        { "nodeid": 7, "leaf": -0.0370681435 }, \n        { "nodeid": 8, "leaf": 0.139301449 }\n      ]}, \n      { "nodeid": 4, "depth": 2, "split": "f28", "split_condition": 0.237181157, "yes": 9, "no": 10, "missing": 10 , "children": [\n        { "nodeid": 9, "leaf": -0.20954296 }, \n        { "nodeid": 10, "leaf": -0.0030017742 }\n      ]}\n    ]}, \n    { "nodeid": 2, "depth": 1, "split": "f21", "split_condition": -0.340018272, "yes": 5, "no": 6, "missing": 6 , "children": [\n      { "nodeid": 5, "leaf": -0.0328958295 }, \n      { "nodeid": 6, "leaf": 0.204293266 }\n    ]}\n  ]}', '  { "nodeid": 0, "depth": 0, "split": "f13", "split_condition": -0.157437399, "yes": 1, "no": 2, "missing": 2 , "children": [\n    { "nodeid": 1, "depth": 1, "split": "f21", "split_condition": -0.0106834769, "yes": 3, "no": 4, "missing": 4 , "children": [\n      { "nodeid": 3, "leaf": -0.203695506 }, \n      { "nodeid": 4, "depth": 2, "split": "f28", "split_condition": -0.137576237, "yes": 7, "no": 8, "missing": 8 , "children": [\n        { "nodeid": 7, "leaf": -0.0847864971 }, \n        { "nodeid": 8, "leaf": 0.101603225 }\n      ]}\n    ]}, \n    { "nodeid": 2, "depth": 1, "split": "f24", "split_condition": -0.78374505, "yes": 5, "no": 6, "missing": 6 , "children": [\n      { "nodeid": 5, "leaf": -0.0626335368 }, \n      { "nodeid": 6, "leaf": 0.17884323 }\n    ]}\n  ]}', '  { "nodeid": 0, "depth": 0, "split": "f21", "split_condition": -0.414118618, "yes": 1, "no": 2, "missing": 2 , "children": [\n    { "nodeid": 1, "depth": 1, "split": "f27", "split_condition": 0.310157001, "yes": 3, "no": 4, "missing": 4 , "children": [\n      { "nodeid": 3, "leaf": -0.181955308 }, \n      { "nodeid": 4, "leaf": 0.00146845344 }\n    ]}, \n    { "nodeid": 2, "depth": 1, "split": "f4", "split_condition": -0.393379152, "yes": 5, "no": 6, "missing": 6 , "children": [\n      { "nodeid": 5, "depth": 2, "split": "f9", "split_condition": -0.975854814, "yes": 7, "no": 8, "missing": 8 , "children": [\n        { "nodeid": 7, "leaf": 0.0755898058 }, \n        { "nodeid": 8, "leaf": -0.138807058 }\n      ]}, \n      { "nodeid": 6, "depth": 2, "split": "f13", "split_condition": -0.389586657, "yes": 9, "no": 10, "missing": 10 , "children": [\n        { "nodeid": 9, "leaf": 0.0346639641 }, \n        { "nodeid": 10, "leaf": 0.163772151 }\n      ]}\n    ]}\n  ]}', '  { "nodeid": 0, "depth": 0, "split": "f26", "split_condition": -0.317544103, "yes": 1, "no": 2, "missing": 2 , "children": [\n    { "nodeid": 1, "depth": 1, "split": "f13", "split_condition": -0.024603337, "yes": 3, "no": 4, "missing": 4 , "children": [\n      { "nodeid": 3, "leaf": -0.181869 }, \n      { "nodeid": 4, "leaf": 0.0199110992 }\n    ]}, \n    { "nodeid": 2, "depth": 1, "split": "f23", "split_condition": 0.13139075, "yes": 5, "no": 6, "missing": 6 , "children": [\n      { "nodeid": 5, "depth": 2, "split": "f1", "split_condition": 0.194195107, "yes": 7, "no": 8, "missing": 8 , "children": [\n        { "nodeid": 7, "leaf": -0.0974747241 }, \n        { "nodeid": 8, "leaf": 0.089779079 }\n      ]}, \n      { "nodeid": 6, "leaf": 0.175326407 }\n    ]}\n  ]}', '  { "nodeid": 0, "depth": 0, "split": "f27", "split_condition": 0.834341705, "yes": 1, "no": 2, "missing": 2 , "children": [\n    { "nodeid": 1, "depth": 1, "split": "f1", "split_condition": 0.45084855, "yes": 3, "no": 4, "missing": 4 , "children": [\n      { "nodeid": 3, "depth": 2, "split": "f13", "split_condition": -0.127229035, "yes": 5, "no": 6, "missing": 6 , "children": [\n        { "nodeid": 5, "leaf": -0.173414677 }, \n        { "nodeid": 6, "leaf": -0.0125038428 }\n      ]}, \n      { "nodeid": 4, "depth": 2, "split": "f18", "split_condition": -0.447716713, "yes": 7, "no": 8, "missing": 8 , "children": [\n        { "nodeid": 7, "leaf": 0.128145844 }, \n        { "nodeid": 8, "leaf": -0.0434704907 }\n      ]}\n    ]}, \n    { "nodeid": 2, "leaf": 0.144845173 }\n  ]}', '  { "nodeid": 0, "depth": 0, "split": "f7", "split_condition": 0.0707678273, "yes": 1, "no": 2, "missing": 2 , "children": [\n    { "nodeid": 1, "depth": 1, "split": "f15", "split_condition": -0.511991203, "yes": 3, "no": 4, "missing": 4 , "children": [\n      { "nodeid": 3, "depth": 2, "split": "f21", "split_condition": 0.0881169662, "yes": 7, "no": 8, "missing": 8 , "children": [\n        { "nodeid": 7, "leaf": -0.0373027474 }, \n        { "nodeid": 8, "leaf": 0.103256255 }\n      ]}, \n      { "nodeid": 4, "leaf": -0.191497132 }\n    ]}, \n    { "nodeid": 2, "depth": 1, "split": "f23", "split_condition": -0.138848916, "yes": 5, "no": 6, "missing": 6 , "children": [\n      { "nodeid": 5, "leaf": -0.0171800051 }, \n      { "nodeid": 6, "leaf": 0.149234056 }\n    ]}\n  ]}', '  { "nodeid": 0, "depth": 0, "split": "f21", "split_condition": -0.669353068, "yes": 1, "no": 2, "missing": 2 , "children": [\n    { "nodeid": 1, "leaf": -0.122019909 }, \n    { "nodeid": 2, "depth": 1, "split": "f24", "split_condition": -1.00970602, "yes": 3, "no": 4, "missing": 4 , "children": [\n      { "nodeid": 3, "leaf": -0.0876970291 }, \n      { "nodeid": 4, "depth": 2, "split": "f23", "split_condition": -0.283079863, "yes": 5, "no": 6, "missing": 6 , "children": [\n        { "nodeid": 5, "leaf": -0.035430897 }, \n        { "nodeid": 6, "leaf": 0.178178564 }\n      ]}\n    ]}\n  ]}', '  { "nodeid": 0, "depth": 0, "split": "f13", "split_condition": -0.157437399, "yes": 1, "no": 2, "missing": 2 , "children": [\n    { "nodeid": 1, "depth": 1, "split": "f21", "split_condition": 0.0650635287, "yes": 3, "no": 4, "missing": 4 , "children": [\n      { "nodeid": 3, "leaf": -0.149585962 }, \n      { "nodeid": 4, "depth": 2, "split": "f24", "split_condition": 0.12862584, "yes": 7, "no": 8, "missing": 8 , "children": [\n        { "nodeid": 7, "leaf": -0.0526710711 }, \n        { "nodeid": 8, "leaf": 0.0755407214 }\n      ]}\n    ]}, \n    { "nodeid": 2, "depth": 1, "split": "f27", "split_condition": -0.0642606318, "yes": 5, "no": 6, "missing": 6 , "children": [\n      { "nodeid": 5, "leaf": -0.00391414342 }, \n      { "nodeid": 6, "leaf": 0.127940059 }\n    ]}\n  ]}', '  { "nodeid": 0, "depth": 0, "split": "f28", "split_condition": -0.134400323, "yes": 1, "no": 2, "missing": 2 , "children": [\n    { "nodeid": 1, "depth": 1, "split": "f17", "split_condition": 0.170220107, "yes": 3, "no": 4, "missing": 4 , "children": [\n      { "nodeid": 3, "leaf": -0.135848388 }, \n      { "nodeid": 4, "leaf": 0.03638101 }\n    ]}, \n    { "nodeid": 2, "depth": 1, "split": "f23", "split_condition": -0.268123865, "yes": 5, "no": 6, "missing": 6 , "children": [\n      { "nodeid": 5, "leaf": -0.0296496656 }, \n      { "nodeid": 6, "leaf": 0.11765378 }\n    ]}\n  ]}', '  { "nodeid": 0, "depth": 0, "split": "f21", "split_condition": -0.414118618, "yes": 1, "no": 2, "missing": 2 , "children": [\n    { "nodeid": 1, "leaf": -0.094330959 }, \n    { "nodeid": 2, "depth": 1, "split": "f15", "split_condition": -0.433034837, "yes": 3, "no": 4, "missing": 4 , "children": [\n      { "nodeid": 3, "leaf": 0.117195763 }, \n      { "nodeid": 4, "leaf": -0.0438218936 }\n    ]}\n  ]}', '  { "nodeid": 0, "depth": 0, "split": "f27", "split_condition": 0.450938046, "yes": 1, "no": 2, "missing": 2 , "children": [\n    { "nodeid": 1, "depth": 1, "split": "f5", "split_condition": -0.80416131, "yes": 3, "no": 4, "missing": 4 , "children": [\n      { "nodeid": 3, "leaf": 0.0750129819 }, \n      { "nodeid": 4, "depth": 2, "split": "f23", "split_condition": -0.138848916, "yes": 5, "no": 6, "missing": 6 , "children": [\n        { "nodeid": 5, "leaf": -0.143372148 }, \n        { "nodeid": 6, "leaf": -0.0188193657 }\n      ]}\n    ]}, \n    { "nodeid": 2, "leaf": 0.0999447629 }\n  ]}', '  { "nodeid": 0, "depth": 0, "split": "f4", "split_condition": -0.391280383, "yes": 1, "no": 2, "missing": 2 , "children": [\n    { "nodeid": 1, "leaf": -0.077808097 }, \n    { "nodeid": 2, "depth": 1, "split": "f1", "split_condition": 0.194195107, "yes": 3, "no": 4, "missing": 4 , "children": [\n      { "nodeid": 3, "leaf": -0.00673105521 }, \n      { "nodeid": 4, "leaf": 0.118505873 }\n    ]}\n  ]}', '  { "nodeid": 0, "depth": 0, "split": "f3", "split_condition": 0.108942546, "yes": 1, "no": 2, "missing": 2 , "children": [\n    { "nodeid": 1, "depth": 1, "split": "f24", "split_condition": 0.239474639, "yes": 3, "no": 4, "missing": 4 , "children": [\n      { "nodeid": 3, "leaf": -0.108242117 }, \n      { "nodeid": 4, "leaf": 0.0429203473 }\n    ]}, \n    { "nodeid": 2, "leaf": 0.0822010115 }\n  ]}', '  { "nodeid": 0, "depth": 0, "split": "f13", "split_condition": -0.157437399, "yes": 1, "no": 2, "missing": 2 , "children": [\n    { "nodeid": 1, "depth": 1, "split": "f21", "split_condition": 0.652926147, "yes": 3, "no": 4, "missing": 4 , "children": [\n      { "nodeid": 3, "leaf": -0.108099788 }, \n      { "nodeid": 4, "leaf": 0.028468132 }\n    ]}, \n    { "nodeid": 2, "leaf": 0.0668497011 }\n  ]}', '  { "nodeid": 0, "depth": 0, "split": "f26", "split_condition": -0.317544103, "yes": 1, "no": 2, "missing": 2 , "children": [\n    { "nodeid": 1, "leaf": -0.0732226372 }, \n    { "nodeid": 2, "depth": 1, "split": "f23", "split_condition": -0.138848916, "yes": 3, "no": 4, "missing": 4 , "children": [\n      { "nodeid": 3, "leaf": -0.0130085228 }, \n      { "nodeid": 4, "leaf": 0.106543668 }\n    ]}\n  ]}', '  { "nodeid": 0, "depth": 0, "split": "f21", "split_condition": -0.414118618, "yes": 1, "no": 2, "missing": 2 , "children": [\n    { "nodeid": 1, "leaf": -0.0825600922 }, \n    { "nodeid": 2, "depth": 1, "split": "f4", "split_condition": -0.393379152, "yes": 3, "no": 4, "missing": 4 , "children": [\n      { "nodeid": 3, "leaf": -0.0369544216 }, \n      { "nodeid": 4, "leaf": 0.103180885 }\n    ]}\n  ]}', '  { "nodeid": 0, "depth": 0, "split": "f5", "split_condition": -0.80416131, "yes": 1, "no": 2, "missing": 2 , "children": [\n    { "nodeid": 1, "leaf": 0.0809169635 }, \n    { "nodeid": 2, "depth": 1, "split": "f7", "split_condition": 0.0707678273, "yes": 3, "no": 4, "missing": 4 , "children": [\n      { "nodeid": 3, "leaf": -0.127265126 }, \n      { "nodeid": 4, "leaf": 0.0604636371 }\n    ]}\n  ]}', '  { "nodeid": 0, "depth": 0, "split": "f13", "split_condition": -0.443796188, "yes": 1, "no": 2, "missing": 2 , "children": [\n    { "nodeid": 1, "leaf": -0.0803565904 }, \n    { "nodeid": 2, "depth": 1, "split": "f15", "split_condition": -0.740907788, "yes": 3, "no": 4, "missing": 4 , "children": [\n      { "nodeid": 3, "leaf": 0.107893348 }, \n      { "nodeid": 4, "depth": 2, "split": "f7", "split_condition": 0.043524228, "yes": 5, "no": 6, "missing": 6 , "children": [\n        { "nodeid": 5, "leaf": -0.0942063183 }, \n        { "nodeid": 6, "leaf": 0.0677535981 }\n      ]}\n    ]}\n  ]}', '  { "nodeid": 0, "depth": 0, "split": "f28", "split_condition": -0.134400323, "yes": 1, "no": 2, "missing": 2 , "children": [\n    { "nodeid": 1, "leaf": -0.0567782782 }, \n    { "nodeid": 2, "leaf": 0.0565437488 }\n  ]}', '  { "nodeid": 0, "depth": 0, "split": "f21", "split_condition": -0.414118618, "yes": 1, "no": 2, "missing": 2 , "children": [\n    { "nodeid": 1, "leaf": -0.0771130547 }, \n    { "nodeid": 2, "depth": 1, "split": "f15", "split_condition": -0.433034837, "yes": 3, "no": 4, "missing": 4 , "children": [\n      { "nodeid": 3, "leaf": 0.0938557833 }, \n      { "nodeid": 4, "leaf": -0.0330896974 }\n    ]}\n  ]}', '  { "nodeid": 0, "depth": 0, "split": "f3", "split_condition": 0.108942546, "yes": 1, "no": 2, "missing": 2 , "children": [\n    { "nodeid": 1, "depth": 1, "split": "f18", "split_condition": -0.358575672, "yes": 3, "no": 4, "missing": 4 , "children": [\n      { "nodeid": 3, "leaf": 0.0322564244 }, \n      { "nodeid": 4, "leaf": -0.10040307 }\n    ]}, \n    { "nodeid": 2, "leaf": 0.0701045543 }\n  ]}', '  { "nodeid": 0, "depth": 0, "split": "f17", "split_condition": 0.170220107, "yes": 1, "no": 2, "missing": 2 , "children": [\n    { "nodeid": 1, "depth": 1, "split": "f26", "split_condition": -0.317544103, "yes": 3, "no": 4, "missing": 4 , "children": [\n      { "nodeid": 3, "leaf": -0.107603714 }, \n      { "nodeid": 4, "leaf": 0.0310518239 }\n    ]}, \n    { "nodeid": 2, "leaf": 0.0574327633 }\n  ]}', '  { "nodeid": 0, "depth": 0, "split": "f13", "split_condition": -0.157437399, "yes": 1, "no": 2, "missing": 2 , "children": [\n    { "nodeid": 1, "depth": 1, "split": "f21", "split_condition": 0.552479029, "yes": 3, "no": 4, "missing": 4 , "children": [\n      { "nodeid": 3, "leaf": -0.0855801925 }, \n      { "nodeid": 4, "leaf": 0.0110186972 }\n    ]}, \n    { "nodeid": 2, "leaf": 0.0558920875 }\n  ]}', '  { "nodeid": 0, "depth": 0, "split": "f28", "split_condition": -0.366241753, "yes": 1, "no": 2, "missing": 2 , "children": [\n    { "nodeid": 1, "leaf": -0.0624226443 }, \n    { "nodeid": 2, "depth": 1, "split": "f23", "split_condition": -0.21190989, "yes": 3, "no": 4, "missing": 4 , "children": [\n      { "nodeid": 3, "leaf": -0.024788972 }, \n      { "nodeid": 4, "leaf": 0.0840805024 }\n    ]}\n  ]}', '  { "nodeid": 0, "depth": 0, "split": "f3", "split_condition": 0.108942546, "yes": 1, "no": 2, "missing": 2 , "children": [\n    { "nodeid": 1, "depth": 1, "split": "f24", "split_condition": 0.239474639, "yes": 3, "no": 4, "missing": 4 , "children": [\n      { "nodeid": 3, "leaf": -0.0896357447 }, \n      { "nodeid": 4, "leaf": 0.0380902402 }\n    ]}, \n    { "nodeid": 2, "leaf": 0.0595075488 }\n  ]}', '  { "nodeid": 0, "depth": 0, "split": "f17", "split_condition": 0.170220107, "yes": 1, "no": 2, "missing": 2 , "children": [\n    { "nodeid": 1, "leaf": -0.0444532521 }, \n    { "nodeid": 2, "leaf": 0.0484812222 }\n  ]}', '  { "nodeid": 0, "depth": 0, "split": "f15", "split_condition": -0.433034837, "yes": 1, "no": 2, "missing": 2 , "children": [\n    { "nodeid": 1, "leaf": 0.0503853597 }, \n    { "nodeid": 2, "leaf": -0.046311602 }\n  ]}', '  { "nodeid": 0, "depth": 0, "split": "f28", "split_condition": 0.0434506387, "yes": 1, "no": 2, "missing": 2 , "children": [\n    { "nodeid": 1, "leaf": -0.0429216176 }, \n    { "nodeid": 2, "leaf": 0.049163755 }\n  ]}', '  { "nodeid": 0, "depth": 0, "split": "f1", "split_condition": 0.182529047, "yes": 1, "no": 2, "missing": 2 , "children": [\n    { "nodeid": 1, "leaf": -0.0424973816 }, \n    { "nodeid": 2, "leaf": 0.0480740629 }\n  ]}', '  { "nodeid": 0, "depth": 0, "split": "f17", "split_condition": 0.163853064, "yes": 1, "no": 2, "missing": 2 , "children": [\n    { "nodeid": 1, "leaf": -0.0422757193 }, \n    { "nodeid": 2, "leaf": 0.0480867252 }\n  ]}', '  { "nodeid": 0, "depth": 0, "split": "f3", "split_condition": 0.108942546, "yes": 1, "no": 2, "missing": 2 , "children": [\n    { "nodeid": 1, "depth": 1, "split": "f18", "split_condition": -0.358575672, "yes": 3, "no": 4, "missing": 4 , "children": [\n      { "nodeid": 3, "leaf": 0.0345594361 }, \n      { "nodeid": 4, "leaf": -0.0883511454 }\n    ]}, \n    { "nodeid": 2, "leaf": 0.0589246973 }\n  ]}', '  { "nodeid": 0, "depth": 0, "split": "f4", "split_condition": -0.391280383, "yes": 1, "no": 2, "missing": 2 , "children": [\n    { "nodeid": 1, "leaf": -0.0486948676 }, \n    { "nodeid": 2, "leaf": 0.038860444 }\n  ]}', '  { "nodeid": 0, "depth": 0, "split": "f5", "split_condition": -0.597665429, "yes": 1, "no": 2, "missing": 2 , "children": [\n    { "nodeid": 1, "leaf": 0.0516988821 }, \n    { "nodeid": 2, "depth": 1, "split": "f24", "split_condition": 0.201103896, "yes": 3, "no": 4, "missing": 4 , "children": [\n      { "nodeid": 3, "leaf": -0.0837923735 }, \n      { "nodeid": 4, "leaf": 0.0280758031 }\n    ]}\n  ]}', '  { "nodeid": 0, "depth": 0, "split": "f22", "split_condition": -0.15702191, "yes": 1, "no": 2, "missing": 2 , "children": [\n    { "nodeid": 1, "leaf": -0.0459671766 }, \n    { "nodeid": 2, "leaf": 0.0425413959 }\n  ]}', '  { "nodeid": 0, "depth": 0, "split": "f13", "split_condition": -0.157437399, "yes": 1, "no": 2, "missing": 2 , "children": [\n    { "nodeid": 1, "leaf": -0.0391393825 }, \n    { "nodeid": 2, "leaf": 0.0448575057 }\n  ]}', '  { "nodeid": 0, "depth": 0, "split": "f1", "split_condition": 0.182529047, "yes": 1, "no": 2, "missing": 2 , "children": [\n    { "nodeid": 1, "leaf": -0.0410058983 }, \n    { "nodeid": 2, "leaf": 0.0467449054 }\n  ]}', '  { "nodeid": 0, "depth": 0, "split": "f26", "split_condition": -0.317544103, "yes": 1, "no": 2, "missing": 2 , "children": [\n    { "nodeid": 1, "leaf": -0.0511946008 }, \n    { "nodeid": 2, "leaf": 0.0370269977 }\n  ]}', '  { "nodeid": 0, "depth": 0, "split": "f15", "split_condition": -0.433034837, "yes": 1, "no": 2, "missing": 2 , "children": [\n    { "nodeid": 1, "leaf": 0.0427280255 }, \n    { "nodeid": 2, "leaf": -0.0399786532 }\n  ]}', '  { "nodeid": 0, "depth": 0, "split": "f17", "split_condition": 0.170220107, "yes": 1, "no": 2, "missing": 2 , "children": [\n    { "nodeid": 1, "leaf": -0.040533632 }, \n    { "nodeid": 2, "leaf": 0.0437405817 }\n  ]}', '  { "nodeid": 0, "depth": 0, "split": "f28", "split_condition": -0.134400323, "yes": 1, "no": 2, "missing": 2 , "children": [\n    { "nodeid": 1, "leaf": -0.0409374125 }, \n    { "nodeid": 2, "leaf": 0.0398758575 }\n  ]}', '  { "nodeid": 0, "depth": 0, "split": "f13", "split_condition": -0.395173132, "yes": 1, "no": 2, "missing": 2 , "children": [\n    { "nodeid": 1, "leaf": -0.047677692 }, \n    { "nodeid": 2, "leaf": 0.0352114327 }\n  ]}', '  { "nodeid": 0, "depth": 0, "split": "f15", "split_condition": -0.433034837, "yes": 1, "no": 2, "missing": 2 , "children": [\n    { "nodeid": 1, "leaf": 0.0403621681 }, \n    { "nodeid": 2, "leaf": -0.0385430716 }\n  ]}', '  { "nodeid": 0, "depth": 0, "split": "f26", "split_condition": -0.317544103, "yes": 1, "no": 2, "missing": 2 , "children": [\n    { "nodeid": 1, "leaf": -0.0487109087 }, \n    { "nodeid": 2, "leaf": 0.0336898081 }\n  ]}', '  { "nodeid": 0, "depth": 0, "split": "f5", "split_condition": -0.597665429, "yes": 1, "no": 2, "missing": 2 , "children": [\n    { "nodeid": 1, "leaf": 0.0441142879 }, \n    { "nodeid": 2, "leaf": -0.0332672857 }\n  ]}', '  { "nodeid": 0, "depth": 0, "split": "f4", "split_condition": -0.391280383, "yes": 1, "no": 2, "missing": 2 , "children": [\n    { "nodeid": 1, "leaf": -0.0465889797 }, \n    { "nodeid": 2, "leaf": 0.0353609808 }\n  ]}', '  { "nodeid": 0, "depth": 0, "split": "f13", "split_condition": -0.395173132, "yes": 1, "no": 2, "missing": 2 , "children": [\n    { "nodeid": 1, "leaf": -0.0446051694 }, \n    { "nodeid": 2, "leaf": 0.0315830708 }\n  ]}', '  { "nodeid": 0, "depth": 0, "split": "f1", "split_condition": 0.182529047, "yes": 1, "no": 2, "missing": 2 , "children": [\n    { "nodeid": 1, "leaf": -0.0375717096 }, \n    { "nodeid": 2, "leaf": 0.039812807 }\n  ]}', '  { "nodeid": 0, "depth": 0, "split": "f4", "split_condition": -0.391280383, "yes": 1, "no": 2, "missing": 2 , "children": [\n    { "nodeid": 1, "leaf": -0.0427529328 }, \n    { "nodeid": 2, "leaf": 0.0313907862 }\n  ]}', '  { "nodeid": 0, "depth": 0, "split": "f22", "split_condition": -0.15702191, "yes": 1, "no": 2, "missing": 2 , "children": [\n    { "nodeid": 1, "leaf": -0.0391633809 }, \n    { "nodeid": 2, "leaf": 0.0341559276 }\n  ]}', '  { "nodeid": 0, "depth": 0, "split": "f15", "split_condition": -0.433034837, "yes": 1, "no": 2, "missing": 2 , "children": [\n    { "nodeid": 1, "leaf": 0.0357116647 }, \n    { "nodeid": 2, "leaf": -0.0350348875 }\n  ]}', '  { "nodeid": 0, "depth": 0, "split": "f17", "split_condition": 0.163853064, "yes": 1, "no": 2, "missing": 2 , "children": [\n    { "nodeid": 1, "leaf": -0.0374540612 }, \n    { "nodeid": 2, "leaf": 0.0382571593 }\n  ]}', '  { "nodeid": 0, "depth": 0, "split": "f1", "split_condition": 0.182529047, "yes": 1, "no": 2, "missing": 2 , "children": [\n    { "nodeid": 1, "leaf": -0.0335157439 }, \n    { "nodeid": 2, "leaf": 0.0373585634 }\n  ]}', '  { "nodeid": 0, "depth": 0, "split": "f6", "split_condition": 0.0432029888, "yes": 1, "no": 2, "missing": 2 , "children": [\n    { "nodeid": 1, "leaf": -0.0313855484 }, \n    { "nodeid": 2, "leaf": 0.0396783538 }\n  ]}', '  { "nodeid": 0, "depth": 0, "split": "f15", "split_condition": -0.433034837, "yes": 1, "no": 2, "missing": 2 , "children": [\n    { "nodeid": 1, "leaf": 0.0371590443 }, \n    { "nodeid": 2, "leaf": -0.0335049555 }\n  ]}', '  { "nodeid": 0, "depth": 0, "split": "f23", "split_condition": -0.110999785, "yes": 1, "no": 2, "missing": 2 , "children": [\n    { "nodeid": 1, "leaf": -0.0295629129 }, \n    { "nodeid": 2, "leaf": 0.0410028584 }\n  ]}', '  { "nodeid": 0, "depth": 0, "split": "f17", "split_condition": 0.233890548, "yes": 1, "no": 2, "missing": 2 , "children": [\n    { "nodeid": 1, "leaf": -0.0315204225 }, \n    { "nodeid": 2, "leaf": 0.0394198149 }\n  ]}', '  { "nodeid": 0, "depth": 0, "split": "f21", "split_condition": -0.0304435659, "yes": 1, "no": 2, "missing": 2 , "children": [\n    { "nodeid": 1, "leaf": -0.0363302268 }, \n    { "nodeid": 2, "leaf": 0.032561399 }\n  ]}', '  { "nodeid": 0, "depth": 0, "split": "f4", "split_condition": -0.391280383, "yes": 1, "no": 2, "missing": 2 , "children": [\n    { "nodeid": 1, "leaf": -0.0380952694 }, \n    { "nodeid": 2, "leaf": 0.0304066762 }\n  ]}', '  { "nodeid": 0, "depth": 0, "split": "f15", "split_condition": -0.615372837, "yes": 1, "no": 2, "missing": 2 , "children": [\n    { "nodeid": 1, "leaf": 0.0382175818 }, \n    { "nodeid": 2, "leaf": -0.0299828555 }\n  ]}', '  { "nodeid": 0, "depth": 0, "split": "f6", "split_condition": -0.027990859, "yes": 1, "no": 2, "missing": 2 , "children": [\n    { "nodeid": 1, "leaf": -0.0298827123 }, \n    { "nodeid": 2, "leaf": 0.0382807441 }\n  ]}', '  { "nodeid": 0, "depth": 0, "split": "f15", "split_condition": -0.433034837, "yes": 1, "no": 2, "missing": 2 , "children": [\n    { "nodeid": 1, "leaf": 0.0348611139 }, \n    { "nodeid": 2, "leaf": -0.0308883265 }\n  ]}', '  { "nodeid": 0, "depth": 0, "split": "f27", "split_condition": -0.0642606318, "yes": 1, "no": 2, "missing": 2 , "children": [\n    { "nodeid": 1, "leaf": -0.0344950967 }, \n    { "nodeid": 2, "leaf": 0.0328373984 }\n  ]}', '  { "nodeid": 0, "depth": 0, "split": "f13", "split_condition": -0.142953932, "yes": 1, "no": 2, "missing": 2 , "children": [\n    { "nodeid": 1, "leaf": -0.031249227 }, \n    { "nodeid": 2, "leaf": 0.0370711088 }\n  ]}', '  { "nodeid": 0, "depth": 0, "split": "f21", "split_condition": -0.0304435659, "yes": 1, "no": 2, "missing": 2 , "children": [\n    { "nodeid": 1, "leaf": -0.0357121825 }, \n    { "nodeid": 2, "leaf": 0.0313482508 }\n  ]}', '  { "nodeid": 0, "depth": 0, "split": "f19", "split_condition": -0.43362245, "yes": 1, "no": 2, "missing": 2 , "children": [\n    { "nodeid": 1, "leaf": -0.0353624076 }, \n    { "nodeid": 2, "leaf": 0.0293057114 }\n  ]}', '  { "nodeid": 0, "depth": 0, "split": "f15", "split_condition": -0.615372837, "yes": 1, "no": 2, "missing": 2 , "children": [\n    { "nodeid": 1, "leaf": 0.0369514897 }, \n    { "nodeid": 2, "leaf": -0.0298017152 }\n  ]}', '  { "nodeid": 0, "depth": 0, "split": "f22", "split_condition": -0.15702191, "yes": 1, "no": 2, "missing": 2 , "children": [\n    { "nodeid": 1, "leaf": -0.0323992111 }, \n    { "nodeid": 2, "leaf": 0.0309547912 }\n  ]}', '  { "nodeid": 0, "depth": 0, "split": "f17", "split_condition": 0.233890548, "yes": 1, "no": 2, "missing": 2 , "children": [\n    { "nodeid": 1, "leaf": -0.0296132471 }, \n    { "nodeid": 2, "leaf": 0.034536317 }\n  ]}', '  { "nodeid": 0, "depth": 0, "split": "f18", "split_condition": -0.294731438, "yes": 1, "no": 2, "missing": 2 , "children": [\n    { "nodeid": 1, "leaf": 0.0304440651 }, \n    { "nodeid": 2, "leaf": -0.0340095386 }\n  ]}', '  { "nodeid": 0, "depth": 0, "split": "f28", "split_condition": 0.0434506387, "yes": 1, "no": 2, "missing": 2 , "children": [\n    { "nodeid": 1, "leaf": -0.0296239834 }, \n    { "nodeid": 2, "leaf": 0.0331370831 }\n  ]}', '  { "nodeid": 0, "depth": 0, "split": "f15", "split_condition": -0.433034837, "yes": 1, "no": 2, "missing": 2 , "children": [\n    { "nodeid": 1, "leaf": 0.0320555381 }, \n    { "nodeid": 2, "leaf": -0.0294454433 }\n  ]}', '  { "nodeid": 0, "depth": 0, "split": "f19", "split_condition": -0.43362245, "yes": 1, "no": 2, "missing": 2 , "children": [\n    { "nodeid": 1, "leaf": -0.0348663367 }, \n    { "nodeid": 2, "leaf": 0.0291137882 }\n  ]}', '  { "nodeid": 0, "depth": 0, "split": "f21", "split_condition": -0.0304435659, "yes": 1, "no": 2, "missing": 2 , "children": [\n    { "nodeid": 1, "leaf": -0.033647459 }, \n    { "nodeid": 2, "leaf": 0.0281171184 }\n  ]}', '  { "nodeid": 0, "depth": 0, "split": "f13", "split_condition": -0.142953932, "yes": 1, "no": 2, "missing": 2 , "children": [\n    { "nodeid": 1, "leaf": -0.0296946503 }, \n    { "nodeid": 2, "leaf": 0.0327934846 }\n  ]}', '  { "nodeid": 0, "depth": 0, "split": "f7", "split_condition": -0.0139900381, "yes": 1, "no": 2, "missing": 2 , "children": [\n    { "nodeid": 1, "leaf": -0.0270941202 }, \n    { "nodeid": 2, "leaf": 0.0327615812 }\n  ]}', '  { "nodeid": 0, "depth": 0, "split": "f15", "split_condition": -0.433034837, "yes": 1, "no": 2, "missing": 2 , "children": [\n    { "nodeid": 1, "leaf": 0.0326293185 }, \n    { "nodeid": 2, "leaf": -0.0300800614 }\n  ]}', '  { "nodeid": 0, "depth": 0, "split": "f27", "split_condition": -0.0642606318, "yes": 1, "no": 2, "missing": 2 , "children": [\n    { "nodeid": 1, "leaf": -0.0304941144 }, \n    { "nodeid": 2, "leaf": 0.0282402691 }\n  ]}', '  { "nodeid": 0, "depth": 0, "split": "f18", "split_condition": -0.294731438, "yes": 1, "no": 2, "missing": 2 , "children": [\n    { "nodeid": 1, "leaf": 0.0278546084 }, \n    { "nodeid": 2, "leaf": -0.0312932618 }\n  ]}', '  { "nodeid": 0, "depth": 0, "split": "f17", "split_condition": 0.233890548, "yes": 1, "no": 2, "missing": 2 , "children": [\n    { "nodeid": 1, "leaf": -0.0272782966 }, \n    { "nodeid": 2, "leaf": 0.0307964906 }\n  ]}', '  { "nodeid": 0, "depth": 0, "split": "f1", "split_condition": 0.182529047, "yes": 1, "no": 2, "missing": 2 , "children": [\n    { "nodeid": 1, "leaf": -0.0279251635 }, \n    { "nodeid": 2, "leaf": 0.0322714783 }\n  ]}', '  { "nodeid": 0, "depth": 0, "split": "f22", "split_condition": -0.15702191, "yes": 1, "no": 2, "missing": 2 , "children": [\n    { "nodeid": 1, "leaf": -0.0296391118 }, \n    { "nodeid": 2, "leaf": 0.0284043532 }\n  ]}', '  { "nodeid": 0, "depth": 0, "split": "f15", "split_condition": -0.433034837, "yes": 1, "no": 2, "missing": 2 , "children": [\n    { "nodeid": 1, "leaf": 0.030321952 }, \n    { "nodeid": 2, "leaf": -0.0280497409 }\n  ]}', '  { "nodeid": 0, "depth": 0, "split": "f17", "split_condition": 0.163853064, "yes": 1, "no": 2, "missing": 2 , "children": [\n    { "nodeid": 1, "leaf": -0.0290297344 }, \n    { "nodeid": 2, "leaf": 0.0305598546 }\n  ]}', '  { "nodeid": 0, "depth": 0, "split": "f21", "split_condition": -0.0106834769, "yes": 1, "no": 2, "missing": 2 , "children": [\n    { "nodeid": 1, "leaf": -0.0308390092 }, \n    { "nodeid": 2, "leaf": 0.0269871149 }\n  ]}']

# Note: Full XGBoost prediction requires the XGBoost library
# This is a simplified version for demonstration
# For production use, consider saving as .json and loading with xgboost.Booster

def predict_proba(X):
    """Predict class probabilities - requires xgboost library"""
    try:
        import xgboost as xgb
        booster = xgb.Booster()
        booster.load_model(bytearray(json.dumps(booster_config), 'utf-8'))
        dmatrix = xgb.DMatrix(np.array(X))
        preds = booster.predict(dmatrix)
        return np.column_stack([1 - preds, preds]) if preds.ndim == 1 else preds
    except ImportError:
        raise ImportError("XGBoost library required for predictions")

def predict(X):
    """Predict class labels"""
    proba = predict_proba(X)
    return classes_[(proba[:, 1] > 0.5).astype(int)] if proba.ndim > 1 else classes_[int(proba[1] > 0.5)]

# Alternative: Save booster to JSON file
booster_json = json.dumps(booster_config)
